{"learner":{"attributes":{},"feature_names":["PC1","PC2","PC3","PC4","PC5","PC6"],"feature_types":["float","float","float","float","float","float"],"gradient_booster":{"model":{"gbtree_model_param":{"num_parallel_tree":"1","num_trees":"50"},"iteration_indptr":[0,1,2,3,4,5,6,7,8,9,10,11,12,13,14,15,16,17,18,19,20,21,22,23,24,25,26,27,28,29,30,31,32,33,34,35,36,37,38,39,40,41,42,43,44,45,46,47,48,49,50],"tree_info":[0,0,0,0,0,0,0,0,0,0,0,0,0,0,0,0,0,0,0,0,0,0,0,0,0,0,0,0,0,0,0,0,0,0,0,0,0,0,0,0,0,0,0,0,0,0,0,0,0,0],"trees":[{"base_weights":[1.1832637E-7,-1.3698761E0,9.963269E-1,-1.5234723E0,-1.438512E-1,1.3307539E-1,1.5139679E0,-1.5961233E-1,-1.4359276E-2,4.8683356E-2,-7.168203E-2,-7.1797006E-2,9.668738E-2,1.6554824E-1,-9.158426E-3],"categories":[],"categories_nodes":[],"categories_segments":[],"categories_sizes":[],"default_left":[0,0,0,0,0,0,0,0,0,0,0,0,0,0,0],"id":0,"left_children":[1,3,5,7,9,11,13,-1,-1,-1,-1,-1,-1,-1,-1],"loss_changes":[8.3866554E1,4.65316E0,1.5695011E1,2.065384E0,1.7889389E0,1.0934923E1,5.182583E0,0E0,0E0,0E0,0E0,0E0,0E0,0E0,0E0],"parents":[2147483647,0,0,1,1,2,2,3,3,4,4,5,5,6,6],"right_children":[2,4,6,8,10,12,14,-1,-1,-1,-1,-1,-1,-1,-1],"split_conditions":[-1.3871157E-1,2.3874156E-1,-1.3069955E-1,6.820577E-1,4.2905277E-1,4.8683342E-1,2.3837173E-1,-1.5961233E-1,-1.4359276E-2,4.8683356E-2,-7.168203E-2,-7.1797006E-2,9.668738E-2,1.6554824E-1,-9.158426E-3],"split_indices":[0,4,3,1,4,0,5,0,0,0,0,0,0,0,0],"split_type":[0,0,0,0,0,0,0,0,0,0,0,0,0,0,0],"sum_hessian":[5.9447704E1,2.4873516E1,3.457419E1,2.1888695E1,2.9848218E0,1.3431699E1,2.1142488E1,2.0645018E1,1.2436758E0,1.4924109E0,1.4924109E0,6.7158494E0,6.7158494E0,1.9401342E1,1.7411461E0],"tree_param":{"num_deleted":"0","num_feature":"6","num_nodes":"15","size_leaf_vector":"1"}},{"base_weights":[-9.378199E-4,-1.2594119E0,8.992822E-1,-1.4020587E0,-1.3552193E-1,1.4310989E0,1.9041714E-1,-5.635072E-3,-1.4765975E-1,4.568511E-2,-6.7660026E-2,7.9326496E-2,1.6588974E-1,-5.801935E-2,1.0265473E-1],"categories":[],"categories_nodes":[],"categories_segments":[],"categories_sizes":[],"default_left":[0,0,0,0,0,0,0,0,0,0,0,0,0,0,0],"id":1,"left_children":[1,3,5,7,9,11,13,-1,-1,-1,-1,-1,-1,-1,-1],"loss_changes":[6.929095E1,3.8990288E0,1.3169674E1,2.1763153E0,1.584658E0,1.6218491E0,1.1186967E1,0E0,0E0,0E0,0E0,0E0,0E0,0E0,0E0],"parents":[2147483647,0,0,1,1,2,2,3,3,4,4,5,5,6,6],"right_children":[2,4,6,8,10,12,14,-1,-1,-1,-1,-1,-1,-1,-1],"split_conditions":[-1.3871157E-1,2.3874156E-1,4.8659388E-2,-3.391352E-1,4.2905277E-1,-5.7122034E-1,-6.068751E-2,-5.635072E-3,-1.4765975E-1,4.568511E-2,-6.7660026E-2,7.9326496E-2,1.6588974E-1,-5.801935E-2,1.0265473E-1],"split_indices":[0,4,2,4,4,1,3,0,0,0,0,0,0,0,0],"split_type":[0,0,0,0,0,0,0,0,0,0,0,0,0,0,0],"sum_hessian":[5.916255E1,2.4505611E1,3.465694E1,2.152598E1,2.9796324E0,1.9219158E1,1.543778E1,1.2219058E0,2.0304073E1,1.4967043E0,1.4829279E0,6.2372413E0,1.2981917E1,8.19294E0,7.2448406E0],"tree_param":{"num_deleted":"0","num_feature":"6","num_nodes":"15","size_leaf_vector":"1"}},{"base_weights":[4.9229234E-4,-1.1668625E0,8.2065946E-1,-1.3013623E0,-1.2792535E-1,9.7543225E-2,1.2538792E0,-5.32781E-3,-1.3721679E-1,4.2902246E-2,-6.3952565E-2,-6.597387E-2,8.3485566E-2,1.3798575E-1,-1.3780489E-2],"categories":[],"categories_nodes":[],"categories_segments":[],"categories_sizes":[],"default_left":[0,0,0,0,0,0,0,0,0,0,0,0,0,0,0],"id":2,"left_children":[1,3,5,7,9,11,13,-1,-1,-1,-1,-1,-1,-1,-1],"loss_changes":[5.7906185E1,3.3210983E0,1.1005833E1,1.8700447E0,1.4054854E0,8.5871105E0,4.0699997E0,0E0,0E0,0E0,0E0,0E0,0E0,0E0,0E0],"parents":[2147483647,0,0,1,1,2,2,3,3,4,4,5,5,6,6],"right_children":[2,4,6,8,10,12,14,-1,-1,-1,-1,-1,-1,-1,-1],"split_conditions":[-1.3871157E-1,2.3874156E-1,-1.3069955E-1,-3.391352E-1,4.2905277E-1,4.8683342E-1,2.3837173E-1,-5.32781E-3,-1.3721679E-1,4.2902246E-2,-6.3952565E-2,-6.597387E-2,8.3485566E-2,1.3798575E-1,-1.3780489E-2],"split_indices":[0,4,3,4,4,0,5,0,0,0,0,0,0,0,0],"split_type":[0,0,0,0,0,0,0,0,0,0,0,0,0,0,0],"sum_hessian":[5.8480923E1,2.3958193E1,3.4522728E1,2.098846E1,2.9697332E0,1.3392899E1,2.1129831E1,1.2208645E0,1.9767595E1,1.4991316E0,1.4706018E0,6.6588793E0,6.734019E0,1.9383675E1,1.7461561E0],"tree_param":{"num_deleted":"0","num_feature":"6","num_nodes":"15","size_leaf_vector":"1"}},{"base_weights":[-4.0189837E-4,-1.0881159E0,7.5052756E-1,-1.2165183E0,-1.20972626E-1,1.2249668E0,1.2276121E-1,-1.2906376E-1,1.979186E-3,4.031393E-2,-6.0520846E-2,1.2986887E-1,5.231799E-3,-5.32065E-2,8.4090956E-2],"categories":[],"categories_nodes":[],"categories_segments":[],"categories_sizes":[],"default_left":[0,0,0,0,0,0,0,0,0,0,0,0,0,0,0],"id":3,"left_children":[1,3,5,7,9,11,13,-1,-1,-1,-1,-1,-1,-1,-1],"loss_changes":[4.855649E1,2.8678932E0,1.032412E1,1.9794731E0,1.2479987E0,1.6540546E0,8.088955E0,0E0,0E0,0E0,0E0,0E0,0E0,0E0,0E0],"parents":[2147483647,0,0,1,1,2,2,3,3,4,4,5,5,6,6],"right_children":[2,4,6,8,10,12,14,-1,-1,-1,-1,-1,-1,-1,-1],"split_conditions":[-1.3871157E-1,2.3874156E-1,4.8659388E-2,6.820577E-1,4.2905277E-1,5.2413857E-1,-6.068751E-2,-1.2906376E-1,1.979186E-3,4.031393E-2,-6.0520846E-2,1.2986887E-1,5.231799E-3,-5.32065E-2,8.4090956E-2],"split_indices":[0,4,2,1,4,3,3,0,0,0,0,0,0,0,0],"split_type":[0,0,0,0,0,0,0,0,0,0,0,0,0,0,0],"sum_hessian":[5.744764E1,2.3279085E1,3.4168556E1,2.0323057E1,2.9560282E0,1.8919037E1,1.5249518E1,1.9132107E1,1.1909513E0,1.4999897E0,1.4560385E0,1.7698864E1,1.2201728E0,8.111949E0,7.137569E0],"tree_param":{"num_deleted":"0","num_feature":"6","num_nodes":"15","size_leaf_vector":"1"}},{"base_weights":[-5.112958E-4,-1.0470488E0,6.744486E-1,-1.4630626E-1,-1.1465667E0,1.1275104E0,1.0545563E-1,2.8675646E-2,-5.170982E-2,-1.815814E-2,-1.2586378E-1,5.538357E-2,1.3465627E-1,-4.1032594E-2,6.577144E-2],"categories":[],"categories_nodes":[],"categories_segments":[],"categories_sizes":[],"default_left":[0,0,0,0,0,0,0,0,0,0,0,0,0,0,0],"id":4,"left_children":[1,3,5,7,9,11,13,-1,-1,-1,-1,-1,-1,-1,-1],"loss_changes":[4.1149376E1,1.8796406E0,9.010641E0,6.9723964E-1,1.9799671E0,1.718853E0,5.0558496E0,0E0,0E0,0E0,0E0,0E0,0E0,0E0,0E0],"parents":[2147483647,0,0,1,1,2,2,3,3,4,4,5,5,6,6],"right_children":[2,4,6,8,10,12,14,-1,-1,-1,-1,-1,-1,-1,-1],"split_conditions":[-1.7174645E-1,-4.3520224E-1,4.8659388E-2,1.04517765E-1,-2.6643053E-1,-5.7122034E-1,-6.068751E-2,2.8675646E-2,-5.170982E-2,-1.815814E-2,-1.2586378E-1,5.538357E-2,1.3465627E-1,-4.1032594E-2,6.577144E-2],"split_indices":[0,2,2,5,4,1,3,0,0,0,0,0,0,0,0],"split_type":[0,0,0,0,0,0,0,0,0,0,0,0,0,0,0],"sum_hessian":[5.625491E1,2.1840126E1,3.4414783E1,2.4186797E0,1.9421446E1,1.8612753E1,1.580203E1,1.2201986E0,1.198481E0,2.2935016E0,1.7127945E1,6.1181893E0,1.2494564E1,8.303752E0,7.4982777E0],"tree_param":{"num_deleted":"0","num_feature":"6","num_nodes":"15","size_leaf_vector":"1"}},{"base_weights":[4.5573433E-6,-9.849037E-1,6.229515E-1,-1.3880907E-1,-1.0815974E0,1.0132881E-1,1.0748662E0,2.7081192E-2,-4.910999E-2,-1.1580588E-1,7.19971E-3,-6.706422E-2,5.749349E-2,1.1503988E-1,-1.5145307E-3],"categories":[],"categories_nodes":[],"categories_segments":[],"categories_sizes":[],"default_left":[0,0,0,0,0,0,0,0,0,0,0,0,0,0,0],"id":5,"left_children":[1,3,5,7,9,11,13,-1,-1,-1,-1,-1,-1,-1,-1],"loss_changes":[3.4950165E1,1.6554756E0,8.116618E0,6.2519145E-1,1.8174419E0,6.711305E0,1.5481415E0,0E0,0E0,0E0,0E0,0E0,0E0,0E0,0E0],"parents":[2147483647,0,0,1,1,2,2,3,3,4,4,5,5,6,6],"right_children":[2,4,6,8,10,12,14,-1,-1,-1,-1,-1,-1,-1,-1],"split_conditions":[-1.7174645E-1,-4.3520224E-1,4.8683342E-1,1.04517765E-1,6.8594503E-1,-1.3673875E-1,5.2413857E-1,2.7081192E-2,-4.910999E-2,-1.1580588E-1,7.19971E-3,-6.706422E-2,5.749349E-2,1.1503988E-1,-1.5145307E-3],"split_indices":[0,2,0,5,1,3,3,0,0,0,0,0,0,0,0],"split_type":[0,0,0,0,0,0,0,0,0,0,0,0,0,0,0],"sum_hessian":[5.496424E1,2.1070211E1,3.3894028E1,2.4107852E0,1.8659426E1,1.6301844E1,1.7592186E1,1.2216327E0,1.1891525E0,1.7495913E1,1.1635149E0,6.040265E0,1.0261578E1,1.6400324E1,1.1918637E0],"tree_param":{"num_deleted":"0","num_feature":"6","num_nodes":"15","size_leaf_vector":"1"}},{"base_weights":[-9.168068E-4,-9.282304E-1,5.732319E-1,-1.3181795E-1,-1.0226314E0,9.9319804E-1,6.128793E-2,2.5580822E-2,-4.666937E-2,-1.0151431E-2,-1.1386402E-1,4.4966348E-2,1.21076345E-1,-3.8860247E-2,5.5081632E-2],"categories":[],"categories_nodes":[],"categories_segments":[],"categories_sizes":[],"default_left":[0,0,0,0,0,0,0,0,0,0,0,0,0,0,0],"id":6,"left_children":[1,3,5,7,9,11,13,-1,-1,-1,-1,-1,-1,-1,-1],"loss_changes":[2.9609852E1,1.4640293E0,7.324065E0,5.609315E-1,1.9002247E0,1.6791782E0,3.8578277E0,0E0,0E0,0E0,0E0,0E0,0E0,0E0,0E0],"parents":[2147483647,0,0,1,1,2,2,3,3,4,4,5,5,6,6],"right_children":[2,4,6,8,10,12,14,-1,-1,-1,-1,-1,-1,-1,-1],"split_conditions":[-1.7174645E-1,-4.3520224E-1,4.8659388E-2,1.04517765E-1,-2.6643053E-1,-5.7122034E-1,-6.068751E-2,2.5580822E-2,-4.666937E-2,-1.0151431E-2,-1.1386402E-1,4.4966348E-2,1.21076345E-1,-3.8860247E-2,5.5081632E-2],"split_indices":[0,2,2,5,4,1,3,0,0,0,0,0,0,0,0],"split_type":[0,0,0,0,0,0,0,0,0,0,0,0,0,0,0],"sum_hessian":[5.3614754E1,2.0266083E1,3.334867E1,2.401579E0,1.7864504E1,1.7803644E1,1.5545027E1,1.2225547E0,1.1790243E0,2.2079878E0,1.5656516E1,5.965953E0,1.1837691E1,8.207903E0,7.337125E0],"tree_param":{"num_deleted":"0","num_feature":"6","num_nodes":"15","size_leaf_vector":"1"}},{"base_weights":[-4.5260668E-4,-8.543619E-1,5.469188E-1,-9.8033893E-1,-3.1177562E-2,7.0527345E-2,9.5140606E-1,-1.061064E-1,1.3578272E-2,3.766878E-2,-4.513691E-2,-5.7970185E-2,6.461654E-2,-1.09640835E-2,1.0305708E-1],"categories":[],"categories_nodes":[],"categories_segments":[],"categories_sizes":[],"default_left":[0,0,0,0,0,0,0,0,0,0,0,0,0,0,0],"id":7,"left_children":[1,3,5,7,9,11,13,-1,-1,-1,-1,-1,-1,-1,-1],"loss_changes":[2.5332184E1,2.1648693E0,6.297056E0,1.7953911E0,8.285925E-1,6.4552965E0,1.6065941E0,0E0,0E0,0E0,0E0,0E0,0E0,0E0,0E0],"parents":[2147483647,0,0,1,1,2,2,3,3,4,4,5,5,6,6],"right_children":[2,4,6,8,10,12,14,-1,-1,-1,-1,-1,-1,-1,-1],"split_conditions":[-1.3871157E-1,2.3874156E-1,4.8683342E-1,6.820577E-1,4.2905277E-1,-6.068751E-2,-4.552559E-1,-1.061064E-1,1.3578272E-2,3.766878E-2,-4.513691E-2,-5.7970185E-2,6.461654E-2,-1.09640835E-2,1.0305708E-1],"split_indices":[0,4,0,1,4,3,3,0,0,0,0,0,0,0,0],"split_type":[0,0,0,0,0,0,0,0,0,0,0,0,0,0,0],"sum_hessian":[5.2197742E1,2.0170523E1,3.202722E1,1.7327826E1,2.8426964E0,1.5245705E1,1.6781517E1,1.62051E1,1.1227269E0,1.495043E0,1.3476533E0,7.1557045E0,8.09E0,1.138409E0,1.5643107E1],"tree_param":{"num_deleted":"0","num_feature":"6","num_nodes":"15","size_leaf_vector":"1"}},{"base_weights":[-7.7868166E-4,-8.315188E-1,4.9335325E-1,1.5783284E-2,-8.9928836E-1,8.842168E-1,3.1924896E-2,-2.1908535E-3,-1.01238035E-1,3.638899E-2,1.103997E-1,-3.5608646E-2,4.624852E-2],"categories":[],"categories_nodes":[],"categories_segments":[],"categories_sizes":[],"default_left":[0,0,0,0,0,0,0,0,0,0,0,0,0],"id":8,"left_children":[1,3,5,-1,7,9,11,-1,-1,-1,-1,-1,-1],"loss_changes":[2.1640396E1,1.4602022E0,5.933754E0,0E0,1.8184805E0,1.640625E0,2.8706622E0,0E0,0E0,0E0,0E0,0E0,0E0],"parents":[2147483647,0,0,1,1,2,2,4,4,5,5,6,6],"right_children":[2,4,6,-1,8,10,12,-1,-1,-1,-1,-1,-1],"split_conditions":[-1.7174645E-1,-3.391352E-1,4.8659388E-2,1.5783284E-2,-4.3520224E-1,-5.7122034E-1,-6.068751E-2,-2.1908535E-3,-1.01238035E-1,3.638899E-2,1.103997E-1,-3.5608646E-2,4.624852E-2],"split_indices":[0,4,2,0,2,1,3,0,0,0,0,0,0],"split_type":[0,0,0,0,0,0,0,0,0,0,0,0,0],"sum_hessian":[5.071841E1,1.8661575E1,3.2056835E1,1.111152E0,1.7550423E1,1.6859417E1,1.5197418E1,2.1402063E0,1.5410216E1,5.7951555E0,1.1064261E1,8.084667E0,7.1127515E0],"tree_param":{"num_deleted":"0","num_feature":"6","num_nodes":"13","size_leaf_vector":"1"}},{"base_weights":[4.2045835E-4,-7.860474E-1,4.5856357E-1,-8.551114E-1,1.7374974E-2,3.1004291E-2,8.4932363E-1,1.4909449E-2,-9.3136095E-2,-7.107542E-2,3.6371734E-2,9.319281E-2,-1.8092012E-2],"categories":[],"categories_nodes":[],"categories_segments":[],"categories_sizes":[],"default_left":[0,0,0,0,0,0,0,0,0,0,0,0,0],"id":9,"left_children":[1,3,5,7,-1,9,11,-1,-1,-1,-1,-1,-1],"loss_changes":[1.848149E1,1.4001551E0,5.3886986E0,1.500474E0,0E0,4.334224E0,1.6065369E0,0E0,0E0,0E0,0E0,0E0,0E0],"parents":[2147483647,0,0,1,1,2,2,3,3,5,5,6,6],"right_children":[2,4,6,8,-1,10,12,-1,-1,-1,-1,-1,-1],"split_conditions":[-1.7174645E-1,6.8594503E-1,4.8683342E-1,-3.391352E-1,1.7374974E-2,-1.8143424E-1,5.2413857E-1,1.4909449E-2,-9.3136095E-2,-7.107542E-2,3.6371734E-2,9.319281E-2,-1.8092012E-2],"split_indices":[0,1,0,4,0,3,3,0,0,0,0,0,0],"split_type":[0,0,0,0,0,0,0,0,0,0,0,0,0],"sum_hessian":[4.9292236E1,1.7881084E1,3.1411152E1,1.6782536E1,1.0985491E0,1.5514711E1,1.58964405E1,1.1169505E0,1.5665585E1,4.4523344E0,1.1062378E1,1.4804827E1,1.0916132E0],"tree_param":{"num_deleted":"0","num_feature":"6","num_nodes":"13","size_leaf_vector":"1"}},{"base_weights":[-2.8329814E-4,-7.184532E-1,4.3525538E-1,-8.530481E-1,4.9503975E-2,-4.9715128E-2,7.56793E-1,-9.406336E-2,1.8624255E-2,4.111656E-2,-3.708968E-2,7.31116E-2,-3.63673E-2,8.925185E-2,-4.003085E-2],"categories":[],"categories_nodes":[],"categories_segments":[],"categories_sizes":[],"default_left":[0,0,0,0,0,0,0,0,0,0,0,0,0,0,0],"id":10,"left_children":[1,3,5,7,9,11,13,-1,-1,-1,-1,-1,-1,-1,-1],"loss_changes":[1.5640446E1,1.9933662E0,4.8913927E0,1.6422081E0,7.242041E-1,3.538094E0,3.306449E0,0E0,0E0,0E0,0E0,0E0,0E0,0E0,0E0],"parents":[2147483647,0,0,1,1,2,2,3,3,4,4,5,5,6,6],"right_children":[2,4,6,8,10,12,14,-1,-1,-1,-1,-1,-1,-1,-1],"split_conditions":[-1.3871157E-1,2.3874156E-1,-1.3069955E-1,6.820577E-1,4.2905277E-1,-7.327575E-2,2.3837173E-1,-9.406336E-2,1.8624255E-2,4.111656E-2,-3.708968E-2,7.31116E-2,-3.63673E-2,8.925185E-2,-4.003085E-2],"split_indices":[0,4,3,1,4,2,5,0,0,0,0,0,0,0,0],"split_type":[0,0,0,0,0,0,0,0,0,0,0,0,0,0,0],"sum_hessian":[4.8003155E1,1.7876537E1,3.0126617E1,1.5116386E1,2.7601519E0,1.23478775E1,1.777874E1,1.4029027E1,1.0873588E0,1.4955394E0,1.2646126E0,3.16002E0,9.187857E0,1.611692E1,1.6618199E0],"tree_param":{"num_deleted":"0","num_feature":"6","num_nodes":"15","size_leaf_vector":"1"}},{"base_weights":[-1.0201271E-4,-3.7705043E-1,7.641425E-1,1.0621997E-1,-5.2200514E-1,-2.2782614E-2,8.4930485E-1,-7.074572E-2,9.26905E-3,9.468189E-2,-2.2053374E-2],"categories":[],"categories_nodes":[],"categories_segments":[],"categories_sizes":[],"default_left":[0,0,0,0,0,0,0,0,0,0,0],"id":11,"left_children":[1,3,5,-1,7,-1,9,-1,-1,-1,-1],"loss_changes":[1.4000237E1,7.3443303E0,1.5495911E0,0E0,3.512619E0,0E0,1.773139E0,0E0,0E0,0E0,0E0],"parents":[2147483647,0,0,1,1,2,2,4,4,6,6],"right_children":[2,4,6,-1,8,-1,10,-1,-1,-1,-1],"split_conditions":[4.8683342E-1,-7.191219E-1,-4.552559E-1,1.0621997E-1,2.3874156E-1,-2.2782614E-2,5.2413857E-1,-7.074572E-2,9.26905E-3,9.468189E-2,-2.2053374E-2],"split_indices":[0,2,3,0,4,0,3,0,0,0,0],"split_type":[0,0,0,0,0,0,0,0,0,0,0],"sum_hessian":[4.6598167E1,3.1545576E1,1.5052592E1,2.3074257E0,2.923815E1,1.0576715E0,1.3994921E1,2.2345629E1,6.892522E0,1.2931248E1,1.0636724E0],"tree_param":{"num_deleted":"0","num_feature":"6","num_nodes":"11","size_leaf_vector":"1"}},{"base_weights":[2.0916979E-3,-6.711953E-1,3.7355715E-1,2.3258867E-2,-7.463249E-1,7.2566825E-1,-1.1840608E-2,3.3950831E-3,-8.671706E-2,2.3503054E-2,9.5346846E-2,-7.8845195E-2,1.821546E-2],"categories":[],"categories_nodes":[],"categories_segments":[],"categories_sizes":[],"default_left":[0,0,0,0,0,0,0,0,0,0,0,0,0],"id":12,"left_children":[1,3,5,-1,7,9,11,-1,-1,-1,-1,-1,-1],"loss_changes":[1.1877495E1,1.3201952E0,4.161292E0,0E0,1.5219202E0,1.5650053E0,2.4930065E0,0E0,0E0,0E0,0E0,0E0,0E0],"parents":[2147483647,0,0,1,1,2,2,4,4,5,5,6,6],"right_children":[2,4,6,-1,8,10,12,-1,-1,-1,-1,-1,-1],"split_conditions":[-1.7174645E-1,-3.391352E-1,4.8659388E-2,2.3258867E-2,-4.3520224E-1,-5.7122034E-1,8.517243E-2,3.3950831E-3,-8.671706E-2,2.3503054E-2,9.5346846E-2,-7.8845195E-2,1.821546E-2],"split_indices":[0,4,2,0,2,1,2,0,0,0,0,0,0],"split_type":[0,0,0,0,0,0,0,0,0,0,0,0,0],"sum_hessian":[4.548793E1,1.5886504E1,2.9601427E1,1.0584048E0,1.48281E1,1.5007349E1,1.4594078E1,2.0849652E0,1.27431345E1,5.4027042E0,9.604645E0,2.3044603E0,1.2289618E1],"tree_param":{"num_deleted":"0","num_feature":"6","num_nodes":"13","size_leaf_vector":"1"}},{"base_weights":[1.7417945E-3,-3.3213988E-1,6.8522555E-1,9.829941E-2,-4.630991E-1,8.492899E-2,8.521355E-1,-6.34748E-2,8.051663E-3,-3.2470625E-2,6.920972E-2,9.823287E-2,-2.529335E-2],"categories":[],"categories_nodes":[],"categories_segments":[],"categories_sizes":[],"default_left":[0,0,0,0,0,0,0,0,0,0,0,0,0],"id":13,"left_children":[1,3,5,-1,7,9,11,-1,-1,-1,-1,-1,-1],"loss_changes":[1.0578272E1,5.8193636E0,1.4518008E0,0E0,2.7575588E0,1.3240966E0,1.9449844E0,0E0,0E0,0E0,0E0,0E0,0E0],"parents":[2147483647,0,0,1,1,2,2,4,4,5,5,6,6],"right_children":[2,4,6,-1,8,10,12,-1,-1,-1,-1,-1,-1],"split_conditions":[4.8683342E-1,-7.191219E-1,-3.8712493E-1,9.829941E-2,2.3874156E-1,6.9901085E-1,5.2413857E-1,-6.34748E-2,8.051663E-3,-3.2470625E-2,6.920972E-2,9.823287E-2,-2.529335E-2],"split_indices":[0,2,3,0,4,0,3,0,0,0,0,0,0],"split_type":[0,0,0,0,0,0,0,0,0,0,0,0,0],"sum_hessian":[4.4357403E1,3.0145418E1,1.4211984E1,2.1407924E0,2.8004627E1,3.4201493E0,1.0791834E1,2.115668E1,6.8479476E0,2.3200824E0,1.100067E0,9.753769E0,1.0380653E0],"tree_param":{"num_deleted":"0","num_feature":"6","num_nodes":"13","size_leaf_vector":"1"}},{"base_weights":[5.317176E-3,-6.062296E-1,3.306074E-1,-6.8559366E-1,2.6652515E-2,-9.671034E-2,6.036175E-1,2.5519673E-2,-7.7600144E-2,-5.651335E-2,2.8696788E-2,8.141856E-2,-5.9690207E-2],"categories":[],"categories_nodes":[],"categories_segments":[],"categories_sizes":[],"default_left":[0,0,0,0,0,0,0,0,0,0,0,0,0],"id":14,"left_children":[1,3,5,7,-1,9,11,-1,-1,-1,-1,-1,-1],"loss_changes":[9.012512E0,1.2725425E0,3.5073106E0,1.4485373E0,0E0,2.3883574E0,5.0809174E0,0E0,0E0,0E0,0E0,0E0,0E0],"parents":[2147483647,0,0,1,1,2,2,3,3,5,5,6,6],"right_children":[2,4,6,8,-1,10,12,-1,-1,-1,-1,-1,-1],"split_conditions":[-1.7174645E-1,6.8594503E-1,-1.3673875E-1,-3.391352E-1,2.6652515E-2,3.966276E-1,2.3837173E-1,2.5519673E-2,-7.7600144E-2,-5.651335E-2,2.8696788E-2,8.141856E-2,-5.9690207E-2],"split_indices":[0,1,3,4,0,0,5,0,0,0,0,0,0],"split_type":[0,0,0,0,0,0,0,0,0,0,0,0,0],"sum_hessian":[4.3297382E1,1.4733914E1,2.8563469E1,1.3702339E1,1.0315745E0,1.1386688E1,1.717678E1,1.0415162E0,1.2660824E1,4.9141674E0,6.472521E0,1.4887379E1,2.2894025E0],"tree_param":{"num_deleted":"0","num_feature":"6","num_nodes":"13","size_leaf_vector":"1"}},{"base_weights":[4.1606748E-3,-2.891846E-1,6.1067057E-1,9.397455E-2,-4.1176414E-1,6.999638E-1,-2.8452042E-2,-1.03794985E-1,-2.4809493E-2,6.394288E-3,9.07904E-2],"categories":[],"categories_nodes":[],"categories_segments":[],"categories_sizes":[],"default_left":[0,0,0,0,0,0,0,0,0,0,0],"id":15,"left_children":[1,3,5,-1,7,9,-1,-1,-1,-1,-1],"loss_changes":[7.8431787E0,4.864359E0,1.347702E0,0E0,2.5836205E0,1.7081199E0,0E0,0E0,0E0,0E0,0E0],"parents":[2147483647,0,0,1,1,2,2,4,4,5,5],"right_children":[2,4,6,-1,8,10,-1,-1,-1,-1,-1],"split_conditions":[4.8683342E-1,-7.191219E-1,5.2413857E-1,9.397455E-2,-2.223783E-1,-3.8712493E-1,-2.8452042E-2,-1.03794985E-1,-2.4809493E-2,6.394288E-3,9.07904E-2],"split_indices":[0,2,3,0,3,3,0,0,0,0,0],"split_type":[0,0,0,0,0,0,0,0,0,0,0],"sum_hessian":[4.2090824E1,2.8722208E1,1.3368617E1,2.0004222E0,2.6721785E1,1.2354381E1,1.0142363E0,4.4302487E0,2.2291536E1,3.366097E0,8.988283E0],"tree_param":{"num_deleted":"0","num_feature":"6","num_nodes":"11","size_leaf_vector":"1"}},{"base_weights":[4.9100113E-3,-5.488472E-1,2.9591548E-1,1.1449092E-2,-6.5872574E-1,-8.6829774E-2,5.471444E-1,-1.003891E-1,-2.425733E-2,5.512417E-2,-3.2551274E-2,7.512457E-2,-5.568512E-2],"categories":[],"categories_nodes":[],"categories_segments":[],"categories_sizes":[],"default_left":[0,0,0,0,0,0,0,0,0,0,0,0,0],"id":16,"left_children":[1,3,5,-1,7,9,11,-1,-1,-1,-1,-1,-1],"loss_changes":[6.9714985E0,1.1618695E0,2.7733576E0,0E0,1.6146111E0,2.0217214E0,4.305518E0,0E0,0E0,0E0,0E0,0E0,0E0],"parents":[2147483647,0,0,1,1,2,2,4,4,5,5,6,6],"right_children":[2,4,6,-1,8,10,12,-1,-1,-1,-1,-1,-1],"split_conditions":[-1.7174645E-1,-2.6643053E-1,-1.3673875E-1,1.1449092E-2,3.1486835E-2,-7.327575E-2,2.3837173E-1,-1.003891E-1,-2.425733E-2,5.512417E-2,-3.2551274E-2,7.512457E-2,-5.568512E-2],"split_indices":[0,4,3,0,4,2,5,0,0,0,0,0,0],"split_type":[0,0,0,0,0,0,0,0,0,0,0,0,0],"sum_hessian":[4.1254044E1,1.3906047E1,2.7347996E1,1.9701638E0,1.19358835E1,1.1096678E1,1.6251318E1,5.7524056E0,6.1834774E0,2.6644053E0,8.432272E0,1.3985305E1,2.2660127E0],"tree_param":{"num_deleted":"0","num_feature":"6","num_nodes":"13","size_leaf_vector":"1"}},{"base_weights":[2.7813397E-3,-2.6000223E-1,5.5278444E-1,8.860269E-2,-3.7266195E-1,-2.9527828E-2,6.4339054E-1,-9.804001E-2,-2.1662833E-2,7.469585E-2,-2.2321956E-2],"categories":[],"categories_nodes":[],"categories_segments":[],"categories_sizes":[],"default_left":[0,0,0,0,0,0,0,0,0,0,0],"id":17,"left_children":[1,3,5,-1,7,-1,9,-1,-1,-1,-1],"loss_changes":[6.099036E0,4.017929E0,1.2382016E0,0E0,2.3204534E0,0E0,1.301167E0,0E0,0E0,0E0,0E0],"parents":[2147483647,0,0,1,1,2,2,4,4,6,6],"right_children":[2,4,6,-1,8,-1,10,-1,-1,-1,-1],"split_conditions":[4.8683342E-1,-7.191219E-1,-4.552559E-1,8.860269E-2,-2.223783E-1,-2.9527828E-2,4.8977244E-1,-9.804001E-2,-2.1662833E-2,7.469585E-2,-2.2321956E-2],"split_indices":[0,2,3,0,3,0,3,0,0,0,0],"split_type":[0,0,0,0,0,0,0,0,0,0,0],"sum_hessian":[4.0204163E1,2.7562479E1,1.2641684E1,1.8525743E0,2.5709904E1,1.002208E0,1.1639476E1,4.173032E0,2.1536873E1,1.0520273E1,1.1192023E0],"tree_param":{"num_deleted":"0","num_feature":"6","num_nodes":"11","size_leaf_vector":"1"}},{"base_weights":[2.5462767E-3,-5.0152504E-1,2.6495212E-1,1.2165448E-2,-6.1130196E-1,5.612316E-1,-2.341228E-2,-9.722788E-2,-2.010881E-2,1.1879109E-2,7.9447426E-2,-7.629447E-2,1.6826533E-2],"categories":[],"categories_nodes":[],"categories_segments":[],"categories_sizes":[],"default_left":[0,0,0,0,0,0,0,0,0,0,0,0,0],"id":18,"left_children":[1,3,5,-1,7,9,11,-1,-1,-1,-1,-1,-1],"loss_changes":[5.484246E0,1.0455556E0,2.3422294E0,0E0,1.6163898E0,1.2973299E0,2.222764E0,0E0,0E0,0E0,0E0,0E0,0E0],"parents":[2147483647,0,0,1,1,2,2,4,4,5,5,6,6],"right_children":[2,4,6,-1,8,10,12,-1,-1,-1,-1,-1,-1],"split_conditions":[-1.7174645E-1,-2.6643053E-1,4.8659388E-2,1.2165448E-2,3.1486835E-2,-5.7122034E-1,8.517243E-2,-9.722788E-2,-2.010881E-2,1.1879109E-2,7.9447426E-2,-7.629447E-2,1.6826533E-2],"split_indices":[0,4,2,0,4,1,2,0,0,0,0,0,0],"split_type":[0,0,0,0,0,0,0,0,0,0,0,0,0],"sum_hessian":[3.9457508E1,1.319643E1,2.6261078E1,1.9602611E0,1.1236169E1,1.2486051E1,1.3775028E1,5.2479463E0,5.9882226E0,4.8311296E0,7.6549206E0,2.221945E0,1.1553083E1],"tree_param":{"num_deleted":"0","num_feature":"6","num_nodes":"13","size_leaf_vector":"1"}},{"base_weights":[3.9275375E-4,-4.738749E-1,2.4344002E-1,-6.1840546E-1,2.8718714E-2,-1.0106713E-1,4.7901616E-1,-9.8008454E-2,-1.0083181E-2,6.775041E-2,-4.567195E-2,4.845879E-2,-3.140279E-2,6.7871965E-2,-5.295229E-2],"categories":[],"categories_nodes":[],"categories_segments":[],"categories_sizes":[],"default_left":[0,0,0,0,0,0,0,0,0,0,0,0,0,0,0],"id":19,"left_children":[1,3,5,7,9,11,13,-1,-1,-1,-1,-1,-1,-1,-1],"loss_changes":[4.6889896E0,1.0189843E0,2.2310972E0,1.9134002E0,1.5799288E0,1.6173749E0,3.6114635E0,0E0,0E0,0E0,0E0,0E0,0E0,0E0,0E0],"parents":[2147483647,0,0,1,1,2,2,3,3,4,4,5,5,6,6],"right_children":[2,4,6,8,10,12,14,-1,-1,-1,-1,-1,-1,-1,-1],"split_conditions":[-1.7174645E-1,6.2150174E-1,-1.3673875E-1,5.52253E-2,-2.6643053E-1,-7.327575E-2,2.3837173E-1,-9.8008454E-2,-1.0083181E-2,6.775041E-2,-4.567195E-2,4.845879E-2,-3.140279E-2,6.7871965E-2,-5.295229E-2],"split_indices":[0,1,3,4,4,2,5,0,0,0,0,0,0,0,0],"split_type":[0,0,0,0,0,0,0,0,0,0,0,0,0,0,0],"sum_hessian":[3.8677723E1,1.278335E1,2.5894375E1,9.749316E0,3.034033E0,1.0747777E1,1.5146598E1,5.2129245E0,4.536392E0,1.129204E0,1.9048291E0,2.525905E0,8.221871E0,1.2916079E1,2.2305195E0],"tree_param":{"num_deleted":"0","num_feature":"6","num_nodes":"15","size_leaf_vector":"1"}},{"base_weights":[-1.146695E-3,-2.2645818E-1,4.773058E-1,8.184347E-2,-3.2654446E-1,5.714606E-1,-2.8876135E-2,-1.1110427E-1,-2.0060455E-2,2.3807639E-3,7.801231E-2],"categories":[],"categories_nodes":[],"categories_segments":[],"categories_sizes":[],"default_left":[0,0,0,0,0,0,0,0,0,0,0],"id":20,"left_children":[1,3,5,-1,7,9,-1,-1,-1,-1,-1],"loss_changes":[4.2847266E0,3.0928094E0,1.0829105E0,0E0,2.2837956E0,1.3148465E0,0E0,0E0,0E0,0E0,0E0],"parents":[2147483647,0,0,1,1,2,2,4,4,5,5],"right_children":[2,4,6,-1,8,10,-1,-1,-1,-1,-1],"split_conditions":[4.8683342E-1,-7.191219E-1,4.8977244E-1,8.184347E-2,-2.222707E-1,-3.8712493E-1,-2.8876135E-2,-1.1110427E-1,-2.0060455E-2,2.3807639E-3,7.801231E-2],"split_indices":[0,2,3,0,5,3,0,0,0,0,0],"split_type":[0,0,0,0,0,0,0,0,0,0,0],"sum_hessian":[3.774401E1,2.6018255E1,1.1725757E1,1.6469488E0,2.4371307E1,1.0668553E1,1.0572038E0,2.2892466E0,2.208206E1,3.2507563E0,7.4177966E0],"tree_param":{"num_deleted":"0","num_feature":"6","num_nodes":"11","size_leaf_vector":"1"}},{"base_weights":[-7.7061553E-4,-1.5951791E-1,5.875296E-1,8.034063E-2,-2.4244255E-1,-3.2978155E-2,8.4644383E-1,-1.070706E-1,-1.2162355E-2,4.496367E-2,-5.018878E-2,1.1745683E-2,9.753551E-2],"categories":[],"categories_nodes":[],"categories_segments":[],"categories_sizes":[],"default_left":[0,0,0,0,0,0,0,0,0,0,0,0,0],"id":21,"left_children":[1,3,5,-1,7,9,11,-1,-1,-1,-1,-1,-1],"loss_changes":[3.6521165E0,2.6535156E0,1.3630178E0,0E0,2.7836742E0,9.9716556E-1,4.399886E-1,0E0,0E0,0E0,0E0,0E0,0E0],"parents":[2147483647,0,0,1,1,2,2,4,4,5,5,6,6],"right_children":[2,4,6,-1,8,10,12,-1,-1,-1,-1,-1,-1],"split_conditions":[5.972127E-1,-7.191219E-1,-3.8712493E-1,8.034063E-2,-2.222707E-1,3.3322844E-1,-9.959035E-2,-1.070706E-1,-1.2162355E-2,4.496367E-2,-5.018878E-2,1.1745683E-2,9.753551E-2],"split_indices":[0,2,3,0,5,1,5,0,0,0,0,0,0],"split_type":[0,0,0,0,0,0,0,0,0,0,0,0,0],"sum_hessian":[3.710209E1,2.9791878E1,7.3102098E0,1.6732805E0,2.8118597E1,2.4091427E0,4.901067E0,2.5786731E0,2.5539925E1,1.2074764E0,1.2016665E0,1.0236309E0,3.8774362E0],"tree_param":{"num_deleted":"0","num_feature":"6","num_nodes":"13","size_leaf_vector":"1"}},{"base_weights":[1.3101739E-3,-4.158102E-1,2.1152098E-1,-5.6393194E-1,6.7983694E-2,9.6795246E-2,8.717143E-2,-9.429296E-2,-6.113176E-3,6.529031E-2,-4.0842455E-2,1.8997401E-2,-7.533708E-2],"categories":[],"categories_nodes":[],"categories_segments":[],"categories_sizes":[],"default_left":[0,0,0,0,0,0,0,0,0,0,0,0,0],"id":22,"left_children":[1,3,5,7,9,11,-1,-1,-1,-1,-1,-1,-1],"loss_changes":[3.3871505E0,9.660027E-1,1.8607347E0,1.8514795E0,1.3609072E0,1.9654316E0,0E0,0E0,0E0,0E0,0E0,0E0,0E0],"parents":[2147483647,0,0,1,1,2,2,3,3,4,4,5,5],"right_children":[2,4,6,8,10,12,-1,-1,-1,-1,-1,-1,-1],"split_conditions":[-1.7174645E-1,6.2150174E-1,7.2432107E-1,5.52253E-2,-2.6643053E-1,4.8977244E-1,8.717143E-2,-9.429296E-2,-6.113176E-3,6.529031E-2,-4.0842455E-2,1.8997401E-2,-7.533708E-2],"split_indices":[0,1,0,4,4,3,0,0,0,0,0,0,0],"split_type":[0,0,0,0,0,0,0,0,0,0,0,0,0],"sum_hessian":[3.6626335E1,1.194529E1,2.4681046E1,9.018482E0,2.9268072E0,2.2003912E1,2.677135E0,4.643202E0,4.375281E0,1.1474874E0,1.7793196E0,2.053032E1,1.4735918E0],"tree_param":{"num_deleted":"0","num_feature":"6","num_nodes":"13","size_leaf_vector":"1"}},{"base_weights":[-2.4296793E-4,-1.8770222E-1,4.0846923E-1,7.598983E-2,-2.757259E-1,5.0408876E-1,-3.0758888E-2,-9.126391E-2,-1.1779113E-2,7.5757585E-2,8.6552463E-4],"categories":[],"categories_nodes":[],"categories_segments":[],"categories_sizes":[],"default_left":[0,0,0,0,0,0,0,0,0,0,0],"id":23,"left_children":[1,3,5,-1,7,9,-1,-1,-1,-1,-1],"loss_changes":[2.9179628E0,2.3872917E0,9.750118E-1,0E0,2.3693876E0,1.3678291E0,0E0,0E0,0E0,0E0,0E0],"parents":[2147483647,0,0,1,1,2,2,4,4,5,5],"right_children":[2,4,6,-1,8,10,-1,-1,-1,-1,-1],"split_conditions":[4.8683342E-1,-7.191219E-1,4.8977244E-1,7.598983E-2,-2.223783E-1,6.4363204E-2,-3.0758888E-2,-9.126391E-2,-1.1779113E-2,7.5757585E-2,8.6552463E-4],"split_indices":[0,2,3,0,3,5,0,0,0,0,0],"split_type":[0,0,0,0,0,0,0,0,0,0,0],"sum_hessian":[3.608441E1,2.5108797E1,1.0975612E1,1.4853785E0,2.3623419E1,9.943782E0,1.0318302E0,3.7444327E0,1.9878986E1,6.2280836E0,3.7156982E0],"tree_param":{"num_deleted":"0","num_feature":"6","num_nodes":"11","size_leaf_vector":"1"}},{"base_weights":[4.1462714E-4,-3.7990215E-1,1.8860738E-1,-5.3041184E-1,9.536128E-2,-1.5754968E-1,3.9171728E-1,-9.1768526E-2,-4.5568044E-3,6.1621446E-2,-3.6560755E-2,1.40442075E-2,-7.1587406E-2,5.6812562E-2,-5.0188523E-2],"categories":[],"categories_nodes":[],"categories_segments":[],"categories_sizes":[],"default_left":[0,0,0,0,0,0,0,0,0,0,0,0,0,0,0],"id":24,"left_children":[1,3,5,7,9,11,13,-1,-1,-1,-1,-1,-1,-1,-1],"loss_changes":[2.6884985E0,9.4006443E-1,1.8283547E0,1.760072E0,1.1468827E0,1.7650948E0,2.8266509E0,0E0,0E0,0E0,0E0,0E0,0E0,0E0,0E0],"parents":[2147483647,0,0,1,1,2,2,3,3,4,4,5,5,6,6],"right_children":[2,4,6,8,10,12,14,-1,-1,-1,-1,-1,-1,-1,-1],"split_conditions":[-1.7174645E-1,6.2150174E-1,-1.8143424E-1,5.52253E-2,-2.6643053E-1,-2.521184E-1,2.3837173E-1,-9.1768526E-2,-4.5568044E-3,6.1621446E-2,-3.6560755E-2,1.40442075E-2,-7.1587406E-2,5.6812562E-2,-5.0188523E-2],"split_indices":[0,1,3,4,4,3,5,0,0,0,0,0,0,0,0],"split_type":[0,0,0,0,0,0,0,0,0,0,0,0,0,0,0],"sum_hessian":[3.5561985E1,1.1434811E1,2.4127176E1,8.596405E0,2.8384058E0,9.004781E0,1.51223955E1,4.2827635E0,4.3136415E0,1.1745213E0,1.6638844E0,6.359183E0,2.645598E0,1.2933409E1,2.1889868E0],"tree_param":{"num_deleted":"0","num_feature":"6","num_nodes":"15","size_leaf_vector":"1"}},{"base_weights":[-3.257341E-3,-8.6446315E-2,8.234441E-2,-8.6306065E-2,6.6773584E-3,-6.3081495E-2,8.676463E-3],"categories":[],"categories_nodes":[],"categories_segments":[],"categories_sizes":[],"default_left":[0,0,0,0,0,0,0],"id":25,"left_children":[1,3,-1,-1,5,-1,-1],"loss_changes":[2.536064E0,2.4262974E0,0E0,0E0,1.6312078E0,0E0,0E0],"parents":[2147483647,0,0,1,1,4,4],"right_children":[2,4,-1,-1,6,-1,-1],"split_conditions":[7.2432107E-1,-2.222707E-1,8.234441E-2,-8.6306065E-2,-7.546484E-1,-6.3081495E-2,8.676463E-3],"split_indices":[0,5,0,0,0,0,0],"split_type":[0,0,0,0,0,0,0],"sum_hessian":[3.4841103E1,3.2469234E1,2.3718684E0,2.5912602E0,2.9877974E1,2.5671265E0,2.7310846E1],"tree_param":{"num_deleted":"0","num_feature":"6","num_nodes":"7","size_leaf_vector":"1"}},{"base_weights":[-4.584586E-3,-8.252617E-2,7.99778E-2,-8.120385E-2,4.157448E-3,-6.0340356E-2,7.83918E-3],"categories":[],"categories_nodes":[],"categories_segments":[],"categories_sizes":[],"default_left":[0,0,0,0,0,0,0],"id":26,"left_children":[1,3,-1,-1,5,-1,-1],"loss_changes":[2.2951562E0,2.110548E0,0E0,0E0,1.4354439E0,0E0,0E0],"parents":[2147483647,0,0,1,1,4,4],"right_children":[2,4,-1,-1,6,-1,-1],"split_conditions":[7.2432107E-1,-2.222707E-1,7.99778E-2,-8.120385E-2,-7.546484E-1,-6.0340356E-2,7.83918E-3],"split_indices":[0,5,0,0,0,0,0],"split_type":[0,0,0,0,0,0,0],"sum_hessian":[3.455649E1,3.2321945E1,2.2345483E0,2.5440319E0,2.9777912E1,2.4660985E0,2.7311815E1],"tree_param":{"num_deleted":"0","num_feature":"6","num_nodes":"7","size_leaf_vector":"1"}},{"base_weights":[-5.662877E-3,-7.874553E-2,7.770502E-2,-7.633191E-2,1.9486726E-3,-1.4740962E-2,2.9527936E-2],"categories":[],"categories_nodes":[],"categories_segments":[],"categories_sizes":[],"default_left":[0,0,0,0,0,0,0],"id":27,"left_children":[1,3,-1,-1,5,-1,-1],"loss_changes":[2.0799708E0,1.8347119E0,0E0,0E0,1.3878359E0,0E0,0E0],"parents":[2147483647,0,0,1,1,4,4],"right_children":[2,4,-1,-1,6,-1,-1],"split_conditions":[7.2432107E-1,-2.222707E-1,7.770502E-2,-7.633191E-2,7.485231E-2,-1.4740962E-2,2.9527936E-2],"split_indices":[0,5,0,0,3,0,0],"split_type":[0,0,0,0,0,0,0],"sum_hessian":[3.4291695E1,3.2185863E1,2.1058304E0,2.501853E0,2.9684011E1,1.9998583E1,9.685428E0],"tree_param":{"num_deleted":"0","num_feature":"6","num_nodes":"7","size_leaf_vector":"1"}},{"base_weights":[-4.5677577E-3,-7.309202E-2,7.551692E-2,7.446606E-2,-1.3570255E-1,-9.080107E-2,-4.854293E-3],"categories":[],"categories_nodes":[],"categories_segments":[],"categories_sizes":[],"default_left":[0,0,0,0,0,0,0],"id":28,"left_children":[1,3,-1,-1,5,-1,-1],"loss_changes":[1.8782443E0,1.792316E0,0E0,0E0,2.078279E0,0E0,0E0],"parents":[2147483647,0,0,1,1,4,4],"right_children":[2,4,-1,-1,6,-1,-1],"split_conditions":[7.2432107E-1,-7.191219E-1,7.551692E-2,7.446606E-2,-2.222707E-1,-9.080107E-2,-4.854293E-3],"split_indices":[0,2,0,0,5,0,0],"split_type":[0,0,0,0,0,0,0],"sum_hessian":[3.4017918E1,3.2032543E1,1.9853736E0,1.503385E0,3.052916E1,2.1409285E0,2.8388231E1],"tree_param":{"num_deleted":"0","num_feature":"6","num_nodes":"7","size_leaf_vector":"1"}},{"base_weights":[-2.4666372E-3,-3.2269347E-1,1.5250657E-1,-1.3965127E-1,-7.84437E-2,-3.7842718E-1,2.6658282E-1,-4.202302E-2,4.818217E-2,4.5717787E-2,-8.636769E-2,-3.0587483E-2,4.2912353E-2],"categories":[],"categories_nodes":[],"categories_segments":[],"categories_sizes":[],"default_left":[0,0,0,0,0,0,0,0,0,0,0,0,0],"id":29,"left_children":[1,3,5,7,-1,9,11,-1,-1,-1,-1,-1,-1],"loss_changes":[1.7741424E0,8.7562907E-1,1.5606565E0,1.8701572E0,0E0,2.2908418E0,2.03184E0,0E0,0E0,0E0,0E0,0E0,0E0],"parents":[2147483647,0,0,1,1,2,2,3,3,5,5,6,6],"right_children":[2,4,6,8,-1,10,12,-1,-1,-1,-1,-1,-1],"split_conditions":[-1.7174645E-1,-3.3461523E-1,-3.9434108E-1,-6.1891603E-1,-7.84437E-2,-3.7529342E-2,-1.3050094E-1,-4.202302E-2,4.818217E-2,4.5717787E-2,-8.636769E-2,-3.0587483E-2,4.2912353E-2],"split_indices":[0,0,4,0,0,5,5,0,0,0,0,0,0],"split_type":[0,0,0,0,0,0,0,0,0,0,0,0,0],"sum_hessian":[3.375818E1,1.065634E1,2.310184E1,8.563915E0,2.092424E0,3.675943E0,1.9425896E1,6.1232452E0,2.4406705E0,1.3717045E0,2.3042386E0,4.100914E0,1.5324982E1],"tree_param":{"num_deleted":"0","num_feature":"6","num_nodes":"13","size_leaf_vector":"1"}},{"base_weights":[-5.29272E-3,-1.500391E-1,3.1819978E-1,6.9661744E-2,-2.2853258E-1,8.461679E-2,1.1702039E-1,-8.53548E-2,-7.830834E-3,-5.8259066E-2,4.145184E-2],"categories":[],"categories_nodes":[],"categories_segments":[],"categories_sizes":[],"default_left":[0,0,0,0,0,0,0,0,0,0,0],"id":30,"left_children":[1,3,5,-1,7,-1,9,-1,-1,-1,-1],"loss_changes":[1.6593244E0,1.7845838E0,1.0651033E0,0E0,2.1054153E0,0E0,2.1347656E0,0E0,0E0,0E0,0E0],"parents":[2147483647,0,0,1,1,2,2,4,4,6,6],"right_children":[2,4,6,-1,8,-1,10,-1,-1,-1,-1],"split_conditions":[4.8683342E-1,-7.191219E-1,5.463856E-1,6.9661744E-2,-2.223783E-1,8.461679E-2,5.972127E-1,-8.53548E-2,-7.830834E-3,-5.8259066E-2,4.145184E-2],"split_indices":[0,2,0,0,3,0,0,0,0,0,0],"split_type":[0,0,0,0,0,0,0,0,0,0,0],"sum_hessian":[3.341759E1,2.3457672E1,9.959921E0,1.3221103E0,2.2135561E1,1.8634673E0,8.096453E0,3.3821473E0,1.8753414E1,2.1297433E0,5.96671E0],"tree_param":{"num_deleted":"0","num_feature":"6","num_nodes":"11","size_leaf_vector":"1"}},{"base_weights":[-3.408023E-3,-6.517417E-2,7.1537115E-2,6.921878E-2,-1.20829806E-1,-8.477923E-2,-4.0505845E-3],"categories":[],"categories_nodes":[],"categories_segments":[],"categories_sizes":[],"default_left":[0,0,0,0,0,0,0],"id":31,"left_children":[1,3,-1,-1,5,-1,-1],"loss_changes":[1.5557737E0,1.4417292E0,0E0,0E0,1.7679516E0,0E0,0E0],"parents":[2147483647,0,0,1,1,4,4],"right_children":[2,4,-1,-1,6,-1,-1],"split_conditions":[7.2432107E-1,-7.191219E-1,7.1537115E-2,6.921878E-2,-2.222707E-1,-8.477923E-2,-4.0505845E-3],"split_indices":[0,2,0,0,5,0,0],"split_type":[0,0,0,0,0,0,0],"sum_hessian":[3.2992756E1,3.1219341E1,1.7734149E0,1.3542144E0,2.9865128E1,2.0208652E0,2.7844263E1],"tree_param":{"num_deleted":"0","num_feature":"6","num_nodes":"7","size_leaf_vector":"1"}},{"base_weights":[-1.4549413E-3,-5.951633E-1,6.745095E-2,-1.6595494E-2,-6.978612E-2,-2.7776018E-1,2.035799E-1,2.0380681E-3,-9.0750284E-2,3.7803475E-2,-2.594451E-2],"categories":[],"categories_nodes":[],"categories_segments":[],"categories_sizes":[],"default_left":[0,0,0,0,0,0,0,0,0,0,0],"id":32,"left_children":[1,3,5,-1,-1,7,9,-1,-1,-1,-1],"loss_changes":[1.4214127E0,4.3438792E-2,1.5204177E0,0E0,0E0,1.751962E0,1.9493204E0,0E0,0E0,0E0,0E0],"parents":[2147483647,0,0,1,1,2,2,5,5,6,6],"right_children":[2,4,6,-1,-1,8,10,-1,-1,-1,-1],"split_conditions":[-7.546484E-1,-3.307255E-1,-2.223783E-1,-1.6595494E-2,-6.978612E-2,-2.7622077E-1,3.9565355E-1,2.0380681E-3,-9.0750284E-2,3.7803475E-2,-2.594451E-2],"split_indices":[0,2,3,0,0,3,2,0,0,0,0],"split_type":[0,0,0,0,0,0,0,0,0,0,0],"sum_hessian":[3.2763588E1,2.6129029E0,3.0150682E1,1.0095619E0,1.603341E0,8.232744E0,2.1917938E1,6.2441807E0,1.9885638E0,1.6053125E1,5.8648124E0],"tree_param":{"num_deleted":"0","num_feature":"6","num_nodes":"11","size_leaf_vector":"1"}},{"base_weights":[-6.3301483E-3,-6.37976E-2,6.884792E-2,6.6281036E-2,-1.1560875E-1,-7.9850055E-2,-4.1660345E-3],"categories":[],"categories_nodes":[],"categories_segments":[],"categories_sizes":[],"default_left":[0,0,0,0,0,0,0],"id":33,"left_children":[1,3,-1,-1,5,-1,-1],"loss_changes":[1.3788399E0,1.2735403E0,0E0,0E0,1.5084054E0,0E0,0E0],"parents":[2147483647,0,0,1,1,4,4],"right_children":[2,4,-1,-1,6,-1,-1],"split_conditions":[7.2432107E-1,-7.191219E-1,6.884792E-2,6.6281036E-2,-2.222707E-1,-7.9850055E-2,-4.1660345E-3],"split_indices":[0,2,0,0,5,0,0],"split_type":[0,0,0,0,0,0,0],"sum_hessian":[3.2432323E1,3.0793577E1,1.638747E0,1.2646806E0,2.9528896E1,1.9278344E0,2.7601063E1],"tree_param":{"num_deleted":"0","num_feature":"6","num_nodes":"7","size_leaf_vector":"1"}},{"base_weights":[-4.108309E-3,-1.3126266E-1,2.8313595E-1,-6.511294E-1,-1.1904857E-2,8.260043E-2,7.8240015E-2,3.1371906E-3,-8.7734334E-2,-1.9987244E-2,4.4649884E-2,-5.1570512E-2,3.5328582E-2],"categories":[],"categories_nodes":[],"categories_segments":[],"categories_sizes":[],"default_left":[0,0,0,0,0,0,0,0,0,0,0,0,0],"id":34,"left_children":[1,3,5,7,9,-1,11,-1,-1,-1,-1,-1,-1],"loss_changes":[1.2506022E0,1.463573E0,1.1045082E0,7.0822227E-1,1.8386457E0,0E0,1.6092198E0,0E0,0E0,0E0,0E0,0E0,0E0],"parents":[2147483647,0,0,1,1,2,2,3,3,4,4,6,6],"right_children":[2,4,6,8,10,-1,12,-1,-1,-1,-1,-1,-1],"split_conditions":[4.8683342E-1,-2.223783E-1,5.463856E-1,-4.0405637E-1,2.3874156E-1,8.260043E-2,5.972127E-1,3.1371906E-3,-8.7734334E-2,-1.9987244E-2,4.4649884E-2,-5.1570512E-2,3.5328582E-2],"split_indices":[0,3,0,2,4,0,0,0,0,0,0,0,0],"split_type":[0,0,0,0,0,0,0,0,0,0,0,0,0],"sum_hessian":[3.222268E1,2.2711855E1,9.510823E0,3.40892E0,1.9302935E1,1.7754537E0,7.7353697E0,1.0630248E0,2.3458953E0,1.408953E1,5.2134037E0,2.1713939E0,5.563976E0],"tree_param":{"num_deleted":"0","num_feature":"6","num_nodes":"13","size_leaf_vector":"1"}},{"base_weights":[-3.5362227E-3,-5.6823707E-1,6.0852505E-2,-6.631623E-2,-1.7275235E-2,-2.5652996E-1,1.8461654E-1,1.0666454E-2,-7.31742E-2,-1.8889297E-2,3.9498687E-2],"categories":[],"categories_nodes":[],"categories_segments":[],"categories_sizes":[],"default_left":[0,0,0,0,0,0,0,0,0,0,0],"id":35,"left_children":[1,3,5,-1,-1,7,9,-1,-1,-1,-1],"loss_changes":[1.2278041E0,1.5165091E-2,1.2399584E0,0E0,0E0,1.6204085E0,1.8366417E0,0E0,0E0,0E0,0E0],"parents":[2147483647,0,0,1,1,2,2,5,5,6,6],"right_children":[2,4,6,-1,-1,8,10,-1,-1,-1,-1],"split_conditions":[-7.546484E-1,-1.3699435E-1,-2.223783E-1,-6.631623E-2,-1.7275235E-2,3.3332688E-1,-5.055646E-1,1.0666454E-2,-7.31742E-2,-1.8889297E-2,3.9498687E-2],"split_indices":[0,4,3,0,0,1,1,0,0,0,0],"split_type":[0,0,0,0,0,0,0,0,0,0,0],"sum_hessian":[3.1816648E1,2.4555888E0,2.936106E1,1.4344532E0,1.0211354E0,7.936314E0,2.1424746E1,4.937914E0,2.9984002E0,7.7560616E0,1.3668684E1],"tree_param":{"num_deleted":"0","num_feature":"6","num_nodes":"11","size_leaf_vector":"1"}},{"base_weights":[-7.1443953E-3,-5.9947643E-2,6.57234E-2,6.3217066E-2,-1.08232915E-1,-7.6335005E-2,-3.8662876E-3],"categories":[],"categories_nodes":[],"categories_segments":[],"categories_sizes":[],"default_left":[0,0,0,0,0,0,0],"id":36,"left_children":[1,3,-1,-1,5,-1,-1],"loss_changes":[1.1850206E0,1.1100357E0,0E0,0E0,1.3372996E0,0E0,0E0],"parents":[2147483647,0,0,1,1,4,4],"right_children":[2,4,-1,-1,6,-1,-1],"split_conditions":[7.2432107E-1,-7.191219E-1,6.57234E-2,6.3217066E-2,-2.222707E-1,-7.6335005E-2,-3.8662876E-3],"split_indices":[0,2,0,0,5,0,0],"split_type":[0,0,0,0,0,0,0],"sum_hessian":[3.1656141E1,3.0168211E1,1.4879305E0,1.1788096E0,2.89894E1,1.8256339E0,2.7163767E1],"tree_param":{"num_deleted":"0","num_feature":"6","num_nodes":"7","size_leaf_vector":"1"}},{"base_weights":[-4.890365E-3,4.193512E-2,-7.025944E-2,-6.0431797E-2,8.990065E-2,-2.3694307E-2,2.1580404E-2],"categories":[],"categories_nodes":[],"categories_segments":[],"categories_sizes":[],"default_left":[0,0,0,0,0,0,0],"id":37,"left_children":[1,3,-1,-1,5,-1,-1],"loss_changes":[1.0902156E0,1.0267326E0,0E0,0E0,1.2886624E0,0E0,0E0],"parents":[2147483647,0,0,1,1,4,4],"right_children":[2,4,-1,-1,6,-1,-1],"split_conditions":[3.389513E-1,-7.9444283E-1,-7.025944E-2,-6.0431797E-2,-2.223783E-1,-2.3694307E-2,2.1580404E-2],"split_indices":[5,0,0,0,3,0,0],"split_type":[0,0,0,0,0,0,0],"sum_hessian":[3.1468369E1,3.037002E1,1.0983484E0,1.2969426E0,2.9073076E1,7.8396063E0,2.123347E1],"tree_param":{"num_deleted":"0","num_feature":"6","num_nodes":"7","size_leaf_vector":"1"}},{"base_weights":[-8.618848E-3,-1.302578E-1,2.6681283E-1,-2.5160593E-1,3.2612792E-1,8.0511004E-2,6.581667E-2,2.274058E-2,-3.574155E-2,-5.5996843E-2,6.6533595E-2,-4.7152165E-2,3.2581113E-2],"categories":[],"categories_nodes":[],"categories_segments":[],"categories_sizes":[],"default_left":[0,0,0,0,0,0,0,0,0,0,0,0,0],"id":38,"left_children":[1,3,5,7,9,-1,11,-1,-1,-1,-1,-1,-1],"loss_changes":[1.1188585E0,1.3623397E0,1.055008E0,1.0354745E0,1.9629318E0,0E0,1.347478E0,0E0,0E0,0E0,0E0,0E0,0E0],"parents":[2147483647,0,0,1,1,2,2,3,3,4,4,6,6],"right_children":[2,4,6,8,10,-1,12,-1,-1,-1,-1,-1,-1],"split_conditions":[4.8683342E-1,5.703024E-1,5.463856E-1,-4.3520224E-1,-1.2733214E-1,8.0511004E-2,5.972127E-1,2.274058E-2,-3.574155E-2,-5.5996843E-2,6.6533595E-2,-4.7152165E-2,3.2581113E-2],"split_indices":[0,1,0,2,3,0,0,0,0,0,0,0,0],"split_type":[0,0,0,0,0,0,0,0,0,0,0,0,0],"sum_hessian":[3.1358204E1,2.2117517E1,9.240685E0,1.7826372E1,4.291145E0,1.6951708E0,7.545515E0,3.0173395E0,1.4809033E1,1.0077745E0,3.2833705E0,2.19515E0,5.350365E0],"tree_param":{"num_deleted":"0","num_feature":"6","num_nodes":"13","size_leaf_vector":"1"}},{"base_weights":[-5.8245976E-3,-2.6657704E-1,1.1886956E-1,-7.397603E-2,-7.5491965E-2,1.8565072E-1,-6.0337346E-2,-3.4653854E-2,4.710499E-2,6.100283E-2,1.3667117E-3],"categories":[],"categories_nodes":[],"categories_segments":[],"categories_sizes":[],"default_left":[0,0,0,0,0,0,0,0,0,0,0],"id":39,"left_children":[1,3,5,7,-1,9,-1,-1,-1,-1,-1],"loss_changes":[1.0729169E0,9.475591E-1,1.1902708E0,1.4644825E0,0E0,1.5410136E0,0E0,0E0,0E0,0E0,0E0],"parents":[2147483647,0,0,1,1,2,2,3,3,5,5],"right_children":[2,4,6,8,-1,10,-1,-1,-1,-1,-1],"split_conditions":[-1.7174645E-1,-3.3461523E-1,5.992001E-1,-6.1891603E-1,-7.5491965E-2,-7.327575E-2,-6.0337346E-2,-3.4653854E-2,4.710499E-2,6.100283E-2,1.3667117E-3],"split_indices":[0,0,3,0,0,2,0,0,0,0,0],"split_type":[0,0,0,0,0,0,0,0,0,0,0],"sum_hessian":[3.1023718E1,9.668249E0,2.135547E1,7.7594333E0,1.9088155E0,2.0228064E1,1.1274061E0,5.415414E0,2.3440197E0,5.0990086E0,1.5129055E1],"tree_param":{"num_deleted":"0","num_feature":"6","num_nodes":"11","size_leaf_vector":"1"}},{"base_weights":[-7.2491644E-3,-5.5007163E-2,6.198884E-2,-5.951153E-2,2.3654746E-3,5.0566148E-2,-8.09641E-3],"categories":[],"categories_nodes":[],"categories_segments":[],"categories_sizes":[],"default_left":[0,0,0,0,0,0,0],"id":40,"left_children":[1,3,-1,-1,5,-1,-1],"loss_changes":[9.8391795E-1,9.4302356E-1,0E0,0E0,1.2347541E0,0E0,0E0],"parents":[2147483647,0,0,1,1,4,4],"right_children":[2,4,-1,-1,6,-1,-1],"split_conditions":[7.2432107E-1,-2.222707E-1,6.198884E-2,-5.951153E-2,-1.4166963E-1,5.0566148E-2,-8.09641E-3],"split_indices":[0,5,0,0,5,0,0],"split_type":[0,0,0,0,0,0,0],"sum_hessian":[3.0712627E1,2.9387024E1,1.3256024E0,1.92185E0,2.7465174E1,3.1814659E0,2.4283709E1],"tree_param":{"num_deleted":"0","num_feature":"6","num_nodes":"7","size_leaf_vector":"1"}},{"base_weights":[-5.0807046E-3,3.979613E-2,-6.723088E-2,-2.4741359E-1,1.4772305E-1,3.0317993E-4,-9.005358E-2,-1.3936433E-2,3.8361527E-2],"categories":[],"categories_nodes":[],"categories_segments":[],"categories_sizes":[],"default_left":[0,0,0,0,0,0,0,0,0],"id":41,"left_children":[1,3,-1,5,7,-1,-1,-1,-1],"loss_changes":[9.73195E-1,9.8384154E-1,0E0,1.4292359E0,1.6001673E0,0E0,0E0,0E0,0E0],"parents":[2147483647,0,0,1,1,3,3,4,4],"right_children":[2,4,-1,6,8,-1,-1,-1,-1],"split_conditions":[3.389513E-1,-2.223783E-1,-6.723088E-2,-2.521184E-1,-2.7310678E-1,3.0317993E-4,-9.005358E-2,-1.3936433E-2,3.8361527E-2],"split_indices":[5,3,0,3,1,0,0,0,0],"split_type":[0,0,0,0,0,0,0,0,0],"sum_hessian":[3.0607956E1,2.9560137E1,1.0478178E0,7.720995E0,2.1839142E1,6.3004074E0,1.4205878E0,1.00352125E1,1.180393E1],"tree_param":{"num_deleted":"0","num_feature":"6","num_nodes":"9","size_leaf_vector":"1"}},{"base_weights":[-8.903796E-3,-2.5233433E-1,1.0740423E-1,-6.7672305E-2,-7.326009E-2,6.601923E-2,1.4561499E-2,-3.262759E-2,4.3132287E-2,1.2095675E-2,-7.449255E-2],"categories":[],"categories_nodes":[],"categories_segments":[],"categories_sizes":[],"default_left":[0,0,0,0,0,0,0,0,0,0,0],"id":42,"left_children":[1,3,5,7,-1,-1,9,-1,-1,-1,-1],"loss_changes":[9.1797656E-1,8.791261E-1,1.1191506E0,1.2589172E0,0E0,0E0,1.6943778E0,0E0,0E0,0E0,0E0],"parents":[2147483647,0,0,1,1,2,2,3,3,6,6],"right_children":[2,4,6,8,-1,-1,10,-1,-1,-1,-1],"split_conditions":[-1.7174645E-1,-3.3461523E-1,-5.2744485E-2,-6.1891603E-1,-7.326009E-2,6.601923E-2,3.9565355E-1,-3.262759E-2,4.3132287E-2,1.2095675E-2,-7.449255E-2],"split_indices":[0,0,0,0,0,0,2,0,0,0,0],"split_type":[0,0,0,0,0,0,0,0,0,0,0],"sum_hessian":[3.0465302E1,9.471692E0,2.099361E1,7.6652985E0,1.8063941E0,2.1401622E0,1.8853449E1,5.276759E0,2.388539E0,1.7274265E1,1.5791836E0],"tree_param":{"num_deleted":"0","num_feature":"6","num_nodes":"11","size_leaf_vector":"1"}},{"base_weights":[-1.0182052E-2,6.7348294E-2,-3.801396E-1,2.1546218E-1,-5.941707E-1,-7.5368845E-1,6.5778725E-2,-2.069231E-2,4.0548064E-2,-9.813984E-2,-7.2981114E-3,-1.0164058E-1,-5.4566334E-3],"categories":[],"categories_nodes":[],"categories_segments":[],"categories_sizes":[],"default_left":[0,0,0,0,0,0,0,0,0,0,0,0,0],"id":43,"left_children":[1,3,5,7,9,11,-1,-1,-1,-1,-1,-1,-1],"loss_changes":[9.213153E-1,2.7408695E0,2.6518521E0,1.8915833E0,9.666531E-1,7.8121614E-1,0E0,0E0,0E0,0E0,0E0,0E0,0E0],"parents":[2147483647,0,0,1,1,2,2,3,3,4,4,5,5],"right_children":[2,4,6,8,10,12,-1,-1,-1,-1,-1,-1,-1],"split_conditions":[2.2601509E-1,4.6872693E-1,3.834582E-1,-2.223783E-1,5.605476E-1,4.8148283E-1,6.5778725E-2,-2.069231E-2,4.0548064E-2,-9.813984E-2,-7.2981114E-3,-1.0164058E-1,-5.4566334E-3],"split_indices":[5,2,2,3,2,0,0,0,0,0,0,0,0],"split_type":[0,0,0,0,0,0,0,0,0,0,0,0,0],"sum_hessian":[3.0228102E1,2.5667116E1,4.560986E0,2.1522522E1,4.1445937E0,3.555292E0,1.0056942E0,6.6504683E0,1.4872054E1,1.8712883E0,2.2733054E0,2.2543256E0,1.3009661E0],"tree_param":{"num_deleted":"0","num_feature":"6","num_nodes":"13","size_leaf_vector":"1"}},{"base_weights":[-1.3616912E-2,-5.7737533E-2,5.8966067E-2,-5.984717E-3,-6.0507633E-2,-7.839611E-3,5.314812E-2],"categories":[],"categories_nodes":[],"categories_segments":[],"categories_sizes":[],"default_left":[0,0,0,0,0,0,0],"id":44,"left_children":[1,3,-1,5,-1,-1,-1],"loss_changes":[8.5893166E-1,8.4021246E-1,0E0,1.1401964E0,0E0,0E0,0E0],"parents":[2147483647,0,0,1,1,3,3],"right_children":[2,4,-1,6,-1,-1,-1],"split_conditions":[7.2432107E-1,5.4986036E-1,5.8966067E-2,3.2050735E-1,-6.0507633E-2,-7.839611E-3,5.314812E-2],"split_indices":[0,3,0,3,0,0,0],"split_type":[0,0,0,0,0,0,0],"sum_hessian":[2.999097E1,2.8789732E1,1.2012395E0,2.7226322E1,1.5634106E0,2.4746435E1,2.4798856E0],"tree_param":{"num_deleted":"0","num_feature":"6","num_nodes":"7","size_leaf_vector":"1"}},{"base_weights":[-1.07870735E-2,-4.9389356E-1,4.2030536E-2,-5.9635837E-2,-1.39719695E-2,-3.5571417E-1,1.15406215E-1,4.376031E-2,-7.751267E-2,9.719583E-2,-2.0878173E-3],"categories":[],"categories_nodes":[],"categories_segments":[],"categories_sizes":[],"default_left":[0,0,0,0,0,0,0,0,0,0,0],"id":45,"left_children":[1,3,5,-1,-1,7,9,-1,-1,-1,-1],"loss_changes":[8.0858207E-1,2.9949784E-2,8.802232E-1,0E0,0E0,1.9107597E0,2.9422152E0,0E0,0E0,0E0,0E0],"parents":[2147483647,0,0,1,1,2,2,5,5,6,6],"right_children":[2,4,6,-1,-1,8,10,-1,-1,-1,-1],"split_conditions":[-7.546484E-1,-1.6252726E-1,-3.9434108E-1,-5.9635837E-2,-1.39719695E-2,-3.7529342E-2,-3.1943557E-1,4.376031E-2,-7.751267E-2,9.719583E-2,-2.0878173E-3],"split_indices":[0,4,4,0,0,5,4,0,0,0,0],"split_type":[0,0,0,0,0,0,0,0,0,0,0],"sum_hessian":[2.9875025E1,2.1212919E0,2.7753733E1,1.1149335E0,1.0063584E0,3.7232747E0,2.4030458E1,1.2726637E0,2.4506109E0,2.4569027E0,2.1573555E1],"tree_param":{"num_deleted":"0","num_feature":"6","num_nodes":"11","size_leaf_vector":"1"}},{"base_weights":[-1.0171595E-2,-5.1821623E-2,5.7228167E-2,-5.460299E-2,4.69622E-4,4.579186E-2,-7.5542065E-3],"categories":[],"categories_nodes":[],"categories_segments":[],"categories_sizes":[],"default_left":[0,0,0,0,0,0,0],"id":46,"left_children":[1,3,-1,-1,5,-1,-1],"loss_changes":[7.764728E-1,7.664271E-1,0E0,0E0,1.001578E0,0E0,0E0],"parents":[2147483647,0,0,1,1,4,4],"right_children":[2,4,-1,-1,6,-1,-1],"split_conditions":[7.2432107E-1,-2.222707E-1,5.7228167E-2,-5.460299E-2,-1.4166963E-1,4.579186E-2,-7.5542065E-3],"split_indices":[0,5,0,0,5,0,0],"split_type":[0,0,0,0,0,0,0],"sum_hessian":[2.9784876E1,2.864739E1,1.1374868E0,1.837639E0,2.680975E1,3.1041605E0,2.370559E1],"tree_param":{"num_deleted":"0","num_feature":"6","num_nodes":"7","size_leaf_vector":"1"}},{"base_weights":[-7.818266E-3,-4.755176E-1,4.2271595E-2,-1.3837457E-2,-5.745774E-2,-3.091684E-2,4.072388E-1,5.9437808E-3,-6.970268E-2,-1.2242172E-2,7.843651E-2],"categories":[],"categories_nodes":[],"categories_segments":[],"categories_sizes":[],"default_left":[0,0,0,0,0,0,0,0,0,0,0],"id":47,"left_children":[1,3,5,-1,-1,7,9,-1,-1,-1,-1],"loss_changes":[7.392348E-1,2.2394419E-2,7.777546E-1,0E0,0E0,1.5334538E0,1.0658952E0,0E0,0E0,0E0,0E0],"parents":[2147483647,0,0,1,1,2,2,5,5,6,6],"right_children":[2,4,6,-1,-1,8,10,-1,-1,-1,-1],"split_conditions":[-7.546484E-1,-2.8745496E-1,5.703024E-1,-1.3837457E-2,-5.745774E-2,4.6103808E-1,-6.1891603E-1,5.9437808E-3,-6.970268E-2,-1.2242172E-2,7.843651E-2],"split_indices":[0,2,1,0,0,3,0,0,0,0,0],"split_type":[0,0,0,0,0,0,0,0,0,0,0],"sum_hessian":[2.9696806E1,2.0511844E0,2.7645622E1,1.010136E0,1.0410483E0,2.3790167E1,3.855455E0,2.1750572E1,2.0395935E0,1.8843435E0,1.9711114E0],"tree_param":{"num_deleted":"0","num_feature":"6","num_nodes":"11","size_leaf_vector":"1"}},{"base_weights":[-9.264474E-3,5.674921E-2,-3.6333665E-1,1.8965653E-1,-5.540655E-1,-7.7566266E-1,6.1892685E-2,-1.8715246E-2,3.6570884E-2,-9.339715E-2,-6.18655E-3,-1.5645994E-2,-9.4974704E-2],"categories":[],"categories_nodes":[],"categories_segments":[],"categories_sizes":[],"default_left":[0,0,0,0,0,0,0,0,0,0,0,0,0],"id":48,"left_children":[1,3,5,7,9,11,-1,-1,-1,-1,-1,-1,-1],"loss_changes":[7.361165E-1,2.269865E0,2.4830515E0,1.5707042E0,8.809736E-1,2.7471638E-1,0E0,0E0,0E0,0E0,0E0,0E0,0E0],"parents":[2147483647,0,0,1,1,2,2,3,3,4,4,5,5],"right_children":[2,4,6,8,10,12,-1,-1,-1,-1,-1,-1,-1],"split_conditions":[2.3837173E-1,4.6872693E-1,3.834582E-1,-2.223783E-1,5.605476E-1,-1.3069955E-1,6.1892685E-2,-1.8715246E-2,3.6570884E-2,-9.339715E-2,-6.18655E-3,-1.5645994E-2,-9.4974704E-2],"split_indices":[5,2,2,3,2,3,0,0,0,0,0,0,0],"split_type":[0,0,0,0,0,0,0,0,0,0,0,0,0],"sum_hessian":[2.9611338E1,2.566588E1,3.9454565E0,2.1645527E1,4.020353E0,2.9270825E0,1.0183737E0,6.8726916E0,1.4772837E1,1.7624537E0,2.257899E0,1.059016E0,1.8680665E0],"tree_param":{"num_deleted":"0","num_feature":"6","num_nodes":"13","size_leaf_vector":"1"}},{"base_weights":[-1.2854679E-2,-1.1465673E-1,2.2133014E-1,-6.431519E-1,-2.151638E-2,7.631373E-2,2.3473537E-2,-1.168505E-2,-8.621204E-2,8.839459E-2,-1.4142622E-2,-4.2135824E-2,2.5996273E-2],"categories":[],"categories_nodes":[],"categories_segments":[],"categories_sizes":[],"default_left":[0,0,0,0,0,0,0,0,0,0,0,0,0],"id":49,"left_children":[1,3,5,7,9,-1,11,-1,-1,-1,-1,-1,-1],"loss_changes":[7.510154E-1,1.062876E0,1.0073004E0,2.729659E-1,2.256418E0,0E0,9.550217E-1,0E0,0E0,0E0,0E0,0E0,0E0],"parents":[2147483647,0,0,1,1,2,2,3,3,4,4,6,6],"right_children":[2,4,6,8,10,-1,12,-1,-1,-1,-1,-1,-1],"split_conditions":[4.8683342E-1,-3.9434108E-1,5.463856E-1,-2.2378948E-2,-3.6715728E-1,7.631373E-2,5.972127E-1,-1.168505E-2,-8.621204E-2,8.839459E-2,-1.4142622E-2,-4.2135824E-2,2.5996273E-2],"split_indices":[0,4,0,5,4,0,0,0,0,0,0,0,0],"split_type":[0,0,0,0,0,0,0,0,0,0,0,0,0],"sum_hessian":[2.943722E1,2.0873667E1,8.563553E0,2.242744E0,1.8630924E1,1.5264707E0,7.037082E0,1.1095434E0,1.1332004E0,1.433621E0,1.7197302E1,2.1712599E0,4.8658223E0],"tree_param":{"num_deleted":"0","num_feature":"6","num_nodes":"13","size_leaf_vector":"1"}}]},"name":"gbtree"},"learner_model_param":{"base_score":"4.6443516E-1","boost_from_average":"1","num_class":"0","num_feature":"6","num_target":"1"},"objective":{"name":"binary:logistic","reg_loss_param":{"scale_pos_weight":"1"}}},"version":[3,0,2]}